148 20
기술 -0.036369123 -0.033191025 0.018122235 0.004026578 0.011396806 0.015172736 -0.011281204 -0.013517433 -0.003325639 0.040209863 0.018928293 -0.00959011 -0.022803977 0.009904604 -0.0086133415 0.013380522 0.015261901 0.020852577 0.0045406404 -0.0050656414
LG -0.03279499 -0.028462792 0.014583593 -0.0034672683 0.027473237 -0.013377295 0.013594228 -0.017833764 -0.010601166 0.020845424 0.020104634 0.010003171 -0.021327782 -0.0018414067 -0.010473691 0.015376651 0.021538788 -0.019203613 0.004159005 0.01467016
화학 -0.0017340686 0.016490296 0.02662785 0.0137485685 0.021937363 -0.015358873 0.00506214 -0.029472336 -0.015089156 0.0051294696 0.028705113 0.003483233 0.003282019 -0.017757023 -0.00775138 0.012027716 -0.014177131 0.0040317792 -0.017225929 -0.024011549
배터리 -0.027750455 -0.009217074 0.010187221 0.008793171 0.013562723 -8.354628e-05 0.008968581 -0.012678706 -0.0015482575 0.024842843 -0.009447075 -0.003013682 -0.0131252445 0.021181695 0.015282967 0.022531612 -0.017505765 0.00055891665 -0.010851348 0.0034950795
유출 -0.031238457 -0.011613135 -0.014902475 -0.017695421 0.033452127 -0.0024001517 0.02304309 -0.016804334 0.0033212716 0.03520944 0.036427587 -0.021116503 0.0011838328 0.021696128 0.002978629 0.017004186 0.0074721426 -0.011207377 0.007700542 0.00374333
보안 0.012944339 -0.0026155687 -0.0048917546 -0.0069881813 -0.007723191 -0.0051962407 0.0013162863 -0.0080499705 -0.0036777207 0.02593534 0.027089318 0.007819288 -0.010851203 0.013416677 -0.024740873 0.006883369 -0.017360974 -0.013398696 0.007824682 0.018158808
SK -0.0287753 -0.0047679525 0.0028468166 0.0034359605 0.008970457 0.0009607282 0.016025495 -0.023447065 0.018097127 0.032557465 -0.0075190747 0.012233812 -0.00010938887 0.0028104363 -0.014738647 0.02297617 -0.013295651 0.008068022 0.011918743 -0.023235584
소송 0.012148636 -0.026251756 0.008316046 -0.01580687 0.013901768 -0.008438954 -0.008510679 0.005073507 0.022273276 -0.011070917 0.0305205 0.002727381 0.010587827 0.017807508 0.020212583 -0.0144681875 0.016870098 0.01095149 -3.300549e-05 -0.014245118
산업 -0.029236794 -0.007876436 -0.0025618628 -0.008741141 0.017421188 0.004869792 0.012070039 0.0054584825 0.016907636 0.034673415 0.030921074 0.006696332 -0.020799033 -0.019127596 0.0065854895 0.0038734088 -0.008642656 -0.018202573 0.019479863 0.015135418
했다 -0.012764454 -0.021689702 -0.010254629 0.025289169 0.013907917 0.020147549 0.002103941 -0.00499117 -0.020281466 0.025582746 0.020638097 -0.010908488 0.02069837 0.0119059095 -0.021503838 2.3432767e-07 -0.010883495 0.0017144763 -0.0010758265 -0.015671339
보호 0.0012570821 -0.019483848 -0.005671071 -0.0115684625 0.02299964 -0.011632897 0.021119075 -0.022811636 0.007842168 0.019106448 0.029378967 -0.017997423 -0.0029596325 -0.0043458524 0.0027557756 0.019566294 0.0067873527 0.028971199 0.0076678596 0.011065431
으로 0.008758946 -0.0042117606 -0.004276367 0.021590825 0.0059786607 -0.021828268 -0.014170483 -0.012516266 0.005452413 0.0016886452 0.01324815 0.003070631 -0.00054460944 0.023314781 0.008843106 -0.00058401754 -0.016876083 0.0048238896 0.004181777 0.008422257
에서 -0.01791025 -0.011696068 -0.014730757 0.0086699035 -0.006680239 0.019520625 0.013873552 -0.02319108 -0.018582972 0.034697402 0.019588092 -0.030498827 0.020566944 0.02669856 -0.007834248 0.0042677145 -0.021315547 0.025041908 0.014809413 -0.02809046
이노베이션 0.006919666 -0.029059367 0.0006684116 0.018427266 -0.012914448 -0.010721069 -0.009567535 -0.009292904 0.02709651 0.029335817 0.0087722065 0.008566192 -0.0025512865 -0.015558148 0.008127301 0.008554799 -0.019567324 0.003455353 0.0068409746 -0.015016268
미국 -0.013892717 0.0039930665 0.0036565335 0.008821781 0.024331676 0.0039972304 0.021675419 -0.01810599 0.00045509942 0.029219083 -0.00988593 -0.019702224 0.016343294 2.0361334e-05 -0.02292515 0.023525253 -0.014006078 0.024883345 -0.02525925 -0.00794156
핵심 -0.007551518 0.002965869 0.015604373 -0.019593421 -0.00074085995 -0.014069602 0.025859402 0.015694194 -0.011938127 0.010399538 0.03262569 -0.023756769 0.0054635997 0.01397543 -0.015342355 -0.0055870833 -0.024817992 0.0014065489 -0.021528305 -0.014587493
정부 -0.026435465 0.010934935 0.022661744 0.0007339656 0.022846986 -0.019764405 0.019263519 -0.0073565384 0.020114109 -0.012898565 0.0017263055 -0.031040208 -0.019805552 -0.007351533 -0.008494637 -0.0038511897 0.009201206 -0.0022854232 -0.024077214 -0.021085585
국가 -0.02286181 -0.007525658 -0.004276441 0.00457955 0.009359331 0.006016662 0.026586946 -0.010326748 -0.012969047 0.029028064 0.005698028 0.0041373055 0.00023905336 -0.015888503 0.01051681 -0.016158007 0.023541888 0.010432118 0.019565338 0.020870645
이다 -0.031239823 0.00602223 0.015965028 0.021546366 -0.016084554 0.009131645 0.028499033 -0.010606821 -0.0024799479 0.03197244 0.006507867 -0.01397043 0.012631739 -0.005108004 -0.02220079 0.0055156862 0.0025193612 0.0055868127 0.00830594 -0.023927538
관련 -0.0019240691 -0.006465854 0.014335766 0.015484796 -0.007733187 -0.012923774 0.01303531 -0.019194838 0.0021495707 0.012270638 0.024477528 -0.026300762 -0.009067591 0.0017782344 -0.004731074 0.019522278 -0.0022597145 -0.018542606 0.009805302 -0.016273007
가이드라인 -0.013080715 -0.0019097342 0.017051252 0.0037427344 -0.011163264 -0.026759176 -0.0021779959 0.020146279 -0.010744576 -0.0062383474 -0.0042021372 -0.013378467 0.007830223 -0.0019359796 -0.02682471 0.010693328 0.0075895977 -0.0038018315 -0.0127170505 -0.010299165
합작 0.016211586 -0.017071795 0.0004992993 0.015099386 0.029075632 0.014635286 -0.0016648523 0.0132484 0.0029455258 0.014427735 0.028983787 -0.0068801516 -0.020164782 0.016172854 -0.021146283 0.004656079 0.0032269314 -0.002664282 0.0243221 0.022764293
승인 0.0068576327 -0.02641031 -0.004172298 -0.0039205803 -0.009457213 -0.017453473 0.015770499 -0.023508225 0.025426732 0.020414257 -0.0062584034 -0.015050317 -0.013317874 0.013012385 0.018035227 0.015086578 -0.022369612 0.00072617066 -0.003887545 -0.021342322
있다 0.001852978 0.012337625 -0.008626317 0.01696678 0.02327167 0.00060797 0.023793219 -0.005905335 -0.013961107 0.0066092717 0.021550348 0.0098250955 -0.019236978 0.023204314 -0.023551296 -0.018333225 -0.000599986 -0.012723977 -0.006266305 -0.00063425256
법원 -0.010797525 -0.009500624 -0.0003010544 0.009509613 0.004258346 0.014308709 0.0051233065 0.0048585264 -0.006100786 0.016728058 -0.014038807 -0.01740886 0.008576381 -0.010045871 -0.008673927 0.005598453 -0.0048973924 0.012445807 0.0198462 0.013519722
자료 0.00961031 -0.024110291 0.0047216373 0.024753336 0.008635856 -0.018192284 -0.004131097 -0.010368537 0.021198507 0.013946835 -0.014747303 0.014036851 0.022242084 -0.017597262 -0.0067738397 -0.010081173 0.022609558 0.0012462465 -0.022605138 -0.021179548
수출 0.012644889 0.0045304517 -0.0060764123 -0.013582468 -0.0076500187 -0.023241974 0.00604185 -5.5308425e-05 -0.017654235 -0.017316343 -0.017615942 -0.026581293 0.007523798 0.0043223724 0.01848175 0.018273393 0.00788091 0.022070536 -0.011373707 -0.009020958
마련 -0.014118907 -0.026812734 0.013917755 -0.01778285 0.017870871 -0.012618405 -0.0051031024 -0.010934783 0.009721599 -0.011763252 0.011432753 -0.023427641 0.01057682 0.011086853 0.0028413066 0.011413688 -0.0069519584 -0.014054521 -0.0046722693 0.02098902
중국 0.00973412 0.0074636405 -0.009873563 0.0076820557 0.019471902 -0.002505836 0.0066218837 0.014085071 0.026298705 0.017625768 0.031741843 -0.022487395 -0.015603018 0.000696267 -0.015912924 0.00085037114 0.002947748 -0.021052752 0.022648515 -0.0010640589
영업비밀 -0.03057527 -0.01895325 0.0060415915 0.017977946 -0.01750722 -0.015348546 0.027943857 0.012184755 -0.022771856 0.013116242 -0.01689218 0.019903542 0.02392127 0.020797968 -0.02045259 0.025127674 -0.014519742 0.0043896465 0.018597536 -0.013494324
위해 0.015013798 0.015076535 0.0024057461 -0.023857176 0.0063955584 0.006670614 -0.013200159 0.0082349125 -0.012651806 -0.01633154 0.017049149 -0.017846426 0.02568729 0.026277594 0.006172959 -0.014725347 -0.018902287 -0.001316084 0.016373182 0.021771483
해외 -0.02016823 0.0008452285 0.010508808 0.017521419 0.02665646 0.015234152 -0.0047667534 0.009570519 -0.005371445 0.024916857 0.010810241 -0.02409144 -0.007260876 0.019281121 0.0036995958 0.012524893 -0.0055540567 0.012369236 -0.009914765 0.0031445823
과정 -0.0096679805 -0.006485372 0.02635993 0.012184683 0.02248859 0.017789626 0.025296306 -0.017411575 0.007435633 0.016369974 0.015965795 -0.0050594467 0.0006772718 0.019973746 -0.026725462 0.0026045633 -0.024543205 -0.020625353 0.0019939125 0.012782493
산업부 -0.019462945 0.014733562 0.02903136 -0.016881725 0.022609292 -0.01988678 0.026799098 -0.011640766 0.009192621 0.016876405 -0.014656511 0.0014427255 0.015440537 -0.014508644 0.006616193 0.0060269115 0.013614866 0.01701572 0.020308292 -0.0007086314
협회 0.021241922 -0.018547064 0.023765875 -0.019952353 0.007824542 -0.00026978267 -0.0032102708 0.011559416 -0.010175009 0.0123212235 0.021721855 -0.016175594 -0.020661512 0.014455138 -0.010014702 -0.019805005 -0.002719261 0.018255396 -0.00650162 0.0023786142
법인 -0.016066682 0.0056830244 0.001807249 0.023227042 0.029107321 -0.02591968 0.021028392 0.008057526 0.010407526 0.014609411 -0.012806202 -0.0023434637 -0.00023583655 -0.003637399 -0.02186321 -0.0030052392 0.0038242305 0.02601671 -9.923321e-05 0.017498232
설립 0.021660145 0.017921375 0.0059113135 0.009923332 0.015841402 -0.0050969305 0.026465101 0.0015314063 0.0104329325 0.00975145 -0.017215142 -0.025702752 0.012201602 0.013976784 -0.024051314 -0.009056138 0.0074117333 -0.015321192 -0.00040713663 0.0025765202
전기차 0.014779589 0.00072347576 -0.0013570631 -0.0026361041 0.02851003 -0.022899594 0.0066784183 -0.0012211725 0.0025754657 -0.0018824838 0.01774231 0.0022713263 0.009945359 0.01302738 -0.0059563643 -0.017447319 -0.017089352 0.015553227 0.012016429 -0.0012185272
하고 -0.00428764 0.0010139804 -0.007009049 0.005324797 0.030984312 0.022307795 0.025293035 0.014817263 0.02086967 -0.014859169 0.0041185687 0.014755656 -0.005086231 -0.015857544 -0.014834205 0.01962283 -0.001995536 -0.009700445 -0.019413559 0.0063096895
하는 0.0034612739 0.016819842 0.021417206 0.011966073 0.0038578343 -0.016887013 -0.0133275585 -0.0021730696 -0.018628784 -1.6862032e-07 0.016494961 -0.01766821 -0.0138354525 -0.0054617096 -0.0005750676 0.010477563 -0.013840805 0.01865605 0.0091928085 -0.02020569
대한 -0.028583918 -0.004590345 -0.016082127 -0.009766496 -0.0017080868 0.0011911261 0.009500568 -0.026568336 0.007287685 -0.0145907365 -0.0034230836 -0.014147071 0.020685917 -0.018204842 -0.021028986 0.0060328552 -0.0033030286 0.025868753 0.0019307791 0.02170967
기업 -0.023154706 0.009038094 0.018725565 -0.008548608 0.029178115 0.005355552 0.014224423 -0.010460222 -0.010080665 0.023318997 0.013468245 -0.0062457607 -0.0124713015 0.01753253 0.008988508 0.0056522964 2.5889622e-05 0.0018893483 0.014201743 -0.006699533
이차전지 -0.014671431 0.010261542 0.0261278 -0.008919003 0.024041617 0.009923249 -0.020328028 -0.0011287625 -0.005395615 0.025391351 0.001225356 0.0066261673 0.017036796 -0.00068941846 0.018379353 -0.022423578 0.02110481 -0.015733859 -0.011763898 0.0071605654
됐다 -0.007538527 -0.027711034 -0.0034673486 -0.009103551 -0.01728727 -0.021846702 0.00021394645 0.009817827 0.026302047 0.002970991 0.025554392 0.00012887955 -0.005104908 0.0059201424 0.019460255 0.015369558 0.020243034 -0.007998678 0.0034013847 0.0067689614
클라우드 -0.0005801702 0.0058148643 -0.00654902 0.019097399 0.013781591 0.0027109538 -0.008671203 0.015760515 -0.022838755 0.026617289 0.023555228 -0.011883631 0.023720292 0.012291756 0.014926313 0.025487788 0.012646644 0.024592537 -0.008680711 -0.008125257
있는 -0.011583805 -0.02084768 0.014155507 -0.012477939 -0.007743911 -0.014050577 0.0096996315 0.0074390154 0.020470185 0.029498974 0.027879458 0.007874407 0.016778344 -0.0031983783 0.010999677 -0.016368302 0.010374594 0.01124625 -0.0075540408 -0.016551116
제출 -0.002678156 -0.019887727 0.005397234 0.010311338 0.006755607 -0.01587605 0.0119153755 -0.019293196 0.022593882 0.027489953 0.020432193 -0.008933974 0.016315447 0.0037566633 0.0100853555 -0.007428919 0.010415477 -0.019364085 -0.007098548 -0.025589451
받아야 0.0013005489 0.019173838 -0.004991367 -0.015210551 -0.010754997 -0.012527544 0.0149590615 -0.026328972 0.004013566 -0.00840773 -0.019862607 0.0013496766 -0.0073950985 0.007479956 0.005080162 0.009995088 -0.0019288965 0.014037798 0.0024222126 -0.0072031985
위원회 0.0016177819 0.005369467 0.016871128 0.021105327 0.026424231 -0.024088778 -0.009675926 0.0124812415 0.014261735 0.011374549 0.011375462 0.0066413614 -0.017507838 -0.0042658034 0.014782979 -0.022080777 0.011740934 -0.009702378 0.008498497 -0.023627196
ITC -0.017994553 0.008104702 0.0020212666 -0.007354856 -0.010207626 0.012695505 -0.0014423528 0.009059666 0.010843788 -0.002323261 -0.013328343 -0.0062918174 2.9850366e-05 0.012806626 -0.0221813 0.011492437 0.0021421106 -0.014737387 -0.019829279 0.014802761
진행 0.010181113 0.009808667 0.018179191 -0.008303376 -0.013207055 -0.024785176 -0.018538464 0.018908545 0.02345036 -0.0020074155 -0.011866017 -0.015109592 -0.013728281 -0.014839231 -0.008413962 0.026012037 0.004987612 0.013549598 -0.0066820174 0.010628067
검토 -0.025293777 -0.01695721 0.027097035 0.01864494 0.025417097 0.0020247542 0.018422224 -0.0014655412 0.0055179503 -0.0024425138 -0.015068918 0.015168334 -0.021344783 0.009158016 0.015227612 0.0010958622 -0.009674026 0.020835882 0.010259458 0.013173959
한다 -0.011152384 -0.026119774 0.00909515 -0.011700376 0.023521947 -0.014872486 0.013580883 0.015234803 -0.013155015 -0.0069240336 -0.0064146076 -0.011418485 -0.0046263463 0.0027983806 -0.026141362 0.012794652 -0.010108658 0.015634088 -0.008487183 -0.0021523908
구성 0.0110595515 -0.007101264 0.02115764 0.00067535223 -0.009335102 -0.010928879 -0.0097788945 0.011376702 0.013271268 -0.009939269 0.014805224 0.0034321735 -0.017703917 -0.0019982187 0.016123017 0.008210455 0.02181872 0.023516856 0.012105137 -0.007027097
위반 -0.001917499 0.011433121 0.0004787318 -0.02241997 0.026472837 -0.012621164 0.016175643 0.012847582 -0.002366581 -0.010078668 -0.0116319535 0.0012347284 0.016381644 -0.009903069 -0.016398096 -0.02302216 0.0017010547 -0.0017745196 -0.0107383765 -0.021320377
업체 0.0017775431 -0.0141200265 0.012789812 -0.015735025 0.030624194 0.020221803 -0.0030342515 0.018885354 -0.0043970235 -0.01693582 0.012545605 -0.022226064 -0.022445442 0.024012424 0.017398188 0.025168221 0.0042798854 0.008057332 0.003975405 -0.012341408
업계 -0.0098976465 0.017274933 0.015234853 -0.0043404778 0.029042477 -0.023704203 0.0026304026 -0.018777706 0.016055144 0.013892763 0.0037168746 0.003593524 -0.006055461 -0.008463887 -0.010696384 -0.013438068 0.02395397 0.0072340765 0.0111978445 -0.011220086
이번 -0.02071231 -0.026486607 -0.006532455 -0.015022296 0.02402064 0.013756006 0.009000928 0.0020248145 0.018077359 0.00047126223 0.027397793 -0.017535908 0.01574856 -0.002166565 -0.0046478077 0.0007623976 -0.0055026356 0.007123208 -0.010654461 0.010042837
가능성 -0.022256764 0.01708885 0.008699504 -0.02175429 0.0049268613 0.008267657 -0.018080747 -0.007619948 0.004418787 0.029476272 0.016373228 0.004660917 0.015164111 0.025514716 -0.009393479 0.00043196636 0.022651307 0.003015843 -0.0034025314 -0.011946944
통해 -0.004727039 -0.022195268 0.008968284 0.01095431 0.013578879 -0.02505982 0.027109215 0.0011752415 -0.018828081 0.021681696 0.0054820725 0.01327428 -0.0014439214 -0.020005938 -0.022168644 0.0060690246 -0.022169756 0.012324985 0.009696508 -0.018500198
절차 0.0070246104 0.010865142 0.023771666 0.019888021 0.015969979 -0.008811646 0.027875083 -0.007831274 -0.017332282 0.014954991 0.012932277 -0.017671987 0.001359217 -0.007996755 -0.023677317 -0.011929795 -0.020517128 -0.013929848 -0.015608291 7.423454e-05
통상 -0.0021151702 0.01054068 0.008389341 -0.01763947 0.024837349 -0.014491543 0.007361293 -0.01612946 0.00055084383 -0.004660429 0.029228868 -0.0050607277 -0.009508344 0.0017976478 -0.006166291 -0.02260825 -0.0052397843 -0.018570254 0.011151685 -0.02497734
자원부 -0.012560324 -0.018745735 -0.002305503 0.02345085 0.015665244 0.0022342114 0.0027154766 -0.020588163 -0.017587395 0.012835802 0.013379744 -0.01953489 0.015567163 -0.0121881 -0.0065629976 0.011911482 0.024572928 0.02483002 0.005880837 0.0006351588
정보 0.01077058 0.0058071516 -0.0126950685 -0.006837562 0.01366004 0.0072330385 0.024071224 -0.027602522 -0.013117912 8.308267e-05 0.018625919 -0.001230011 0.009020884 -0.019447852 -0.018121159 0.017153477 -0.016614703 0.019645229 -0.01662957 0.0054984125
에도 -0.018602055 -0.009790611 0.025678353 0.005870752 -0.014057679 0.00467517 0.020002611 -0.012832867 -0.0062023704 0.008945652 0.013131934 0.003438554 -0.0033921083 0.023351094 -0.013062249 0.021778457 0.01811108 0.009936446 0.0132423695 0.001287106
한국 -0.0108772125 -0.013806537 0.0111633 0.014138863 0.0053987713 0.011462758 -0.015467409 -0.00958913 -0.022165405 0.01935453 0.018931137 -0.020986948 -0.02090174 -0.0071338112 -0.016934855 0.022158038 0.0024341934 -0.013493357 0.005231491 0.018590912
내용 -0.011650364 0.009838144 0.020025216 -0.0054599484 0.029331591 -0.010115653 -0.015990432 -0.0059230854 -0.00012974371 0.024962652 0.022913046 -0.026566561 -0.019797338 0.0031805937 -0.024502013 -0.014426704 0.010500336 0.017800283 0.014498932 0.0047613974
비밀 -0.017785706 -0.008623652 -0.014688518 0.023325402 0.0019057356 -0.021447605 -0.016921533 -0.0010595049 0.021841064 -0.0051696505 -0.010746878 -0.009696281 -0.0010874722 0.00719824 -0.024808094 0.022797203 0.015367566 0.00887145 -0.022491323 -0.004274131
보조금 -0.005288284 0.016662411 0.025428321 -0.015984992 0.0176365 0.005533011 -0.015489378 -0.0054289433 0.009761624 0.03024964 -0.00036337192 0.0073756124 -0.0031095815 -0.014456491 -0.015382272 0.0051770927 -0.018521784 0.017762575 -0.024288746 0.015987026
따라 -0.010295963 -0.021937335 0.004485564 0.0049148016 0.01673074 -0.027101941 0.014293529 -0.020044679 -0.0223062 0.010342745 -0.016786166 0.019645544 -0.015761338 0.0017878423 0.010588661 0.005540635 -0.00012508192 0.017643439 -0.007734411 -0.020518355
하기 0.008258545 0.01740422 0.014126668 0.0245186 0.024016963 -0.017342506 -0.01810857 -0.0070565036 0.02395867 -0.007244894 -0.009714809 -0.018934688 -0.011744315 0.008476229 0.0020258105 0.009060305 -0.0179722 -0.010470787 -0.0025281091 0.003791349
계획 0.0060902224 0.016181914 -0.014511815 0.018006884 0.016621672 0.017441163 -0.0057383426 0.002673514 0.0024576236 0.01113427 0.011794865 0.012935985 0.00036127694 0.006730908 -0.01610162 0.01849365 -0.0032706407 -0.008494646 -0.005210345 0.015309679
관리 0.0034537157 -0.01802168 0.015554271 -0.0068435012 -0.007882357 0.02054008 -0.0024640956 -0.020372387 -0.013462527 0.005433295 0.014748438 -0.02325186 0.0015518761 0.0047004963 -0.025742464 -0.010325313 0.010381509 0.021875778 -0.016114924 0.0069834357
주요 -0.024124559 -0.004074636 0.0018912579 -0.020019956 0.02535231 0.0054888106 0.009314727 0.020565378 0.022993324 0.01877042 0.012203948 -0.0006425404 0.01737868 0.009551324 0.005202857 0.0071081915 0.013678676 0.018768173 0.01587869 0.0026406166
되는 0.011536138 -0.014525708 0.018476175 -0.008060849 -0.016666353 0.005526506 0.014361266 -0.009277097 -0.0061124563 0.027208874 0.025622142 -0.012929526 0.019593343 -0.01983165 0.011226936 0.0016822803 0.00376566 0.025747377 -0.023121212 -0.0019918524
우려 -0.020992922 -0.013931946 0.014750397 0.009976087 0.013464225 0.0071871057 -0.008881166 0.0061376397 0.013271213 0.019360494 0.027959358 -0.002952402 0.023209836 -0.005916567 -0.009494549 0.023013916 0.023407994 0.020263998 -0.024353456 -0.014591449
전지 -0.028458018 0.011336409 0.0047603156 -0.015997108 0.024655221 -0.0072597847 0.0031713026 -0.009940627 0.023359526 0.0012050174 -0.002154935 -0.026513247 0.008625199 -0.0035248077 -0.010887149 -0.020804945 0.009412401 0.025830215 -0.008380329 -0.021116626
대책 -0.01813596 0.0199638 0.027450912 0.022285445 0.025569368 -0.020088369 -0.017294955 -0.023966843 -0.022009311 -0.013500858 0.009651977 -0.008552712 -0.017517233 0.0057264627 -0.017460337 -0.017640699 -0.008152395 -0.0156671 0.018258315 -0.025735775
활용 -0.028690565 -0.011076196 -0.0041218176 -0.011680698 -0.012214161 -0.022292845 0.023490118 -0.009074339 0.018977044 0.016251238 0.001962297 -0.0008453486 0.0025854325 0.0067938734 0.0008987423 -0.019362431 0.0049594673 0.012090265 -0.001275383 -0.011567096
작성 0.00085777545 0.008066806 0.026999788 -0.015922766 -0.018293174 0.010544334 -0.02235143 0.01621547 0.025911218 0.015096756 -0.0053470307 -0.018605104 -0.012735599 -0.009771082 -0.0057294583 -0.0150822485 -0.008486478 -0.010867276 0.010863681 -0.013941351
요청 -0.01048663 0.01696494 -0.004538148 -0.014006928 -0.0028971534 -0.014756151 -0.0030299667 0.019089116 -0.0005202011 -0.012074264 0.00040520407 -0.001143355 -0.008040921 0.020932494 -0.026190123 -0.010083111 0.017119257 0.002791701 -0.0037281506 0.014405618
논란 0.01676365 -0.019571433 -0.0044509843 0.016333131 0.0031619922 -0.020341784 0.013494438 0.0074472693 0.021002274 0.029874086 0.0281079 0.008321719 -0.011088807 0.025021102 0.0028697376 -0.022775108 -0.0019887781 0.008534743 0.008003379 0.008360126
에는 0.0015183716 -0.020042969 0.018973393 -0.017186528 0.009753615 0.015992643 0.0032468569 -0.015400761 -0.015818872 0.023803707 0.028669126 -0.023691088 0.013005461 -0.014954344 0.016794868 -0.0020529476 -0.023451488 -0.013109574 0.0014722222 0.006756063
로펌 -0.014631222 -0.02297547 0.021597726 0.023735935 0.021423133 -0.013629058 -0.007142075 0.00073702517 0.0112281935 -0.009994663 -0.0005000786 0.011981371 -0.015485856 -0.01785286 0.004665831 0.009358773 0.0015772705 0.005399092 -0.0149604175 0.014083452
되어 -0.0031325894 -0.019029101 0.010296018 0.019168574 0.012223674 -0.02600514 0.00823876 -0.010375656 -0.012764365 0.008064689 0.026518673 0.0044044727 0.01490002 -0.013973083 -0.0038154356 -0.019788455 -0.022007665 -0.015518076 0.009587276 -0.018189216
외부 -0.02333334 -0.008695163 0.0037085994 -0.005946699 -0.014053854 -0.012913165 0.00848888 -0.014016097 -0.0018329386 0.010624443 0.007765561 -0.017918976 0.025816794 -0.0071111685 -0.027462464 0.0015822395 -0.01961193 0.01895088 -0.007929841 -0.013196831
전혀 -0.019784762 0.006267307 -0.022267614 0.0075743687 -0.008333653 -0.025714312 0.0027220973 -0.010915819 0.022663046 0.00830302 0.012828637 -0.01655366 -0.0074374136 0.018751139 0.010311021 0.021922113 -0.014320901 0.025540499 0.006813528 -0.0036635478
없다 -0.004118403 -0.017729644 -0.016844418 0.011684319 -0.0015094926 0.015811283 -0.0069746287 -0.021072228 -0.0062000058 -0.017551344 0.025812138 -0.02611351 0.010238819 0.012072932 -0.01836874 0.0061943014 0.011590755 -0.0074290675 -0.00872433 0.016155574
침해 -0.02353768 -0.02197902 -0.01273061 0.0021589356 0.007214164 -0.0073152385 0.015295567 -0.026985282 -0.00826003 -0.011466175 0.030644804 -0.0058907573 0.0013978089 0.026014071 0.010608612 0.0071862186 -0.008575782 0.018072365 0.021539807 -0.004908782
법률 0.0055139824 0.01788132 0.01235624 0.024613172 -0.010760436 0.013769912 0.019521173 -0.0002287902 -0.01591777 0.027095601 0.0036451751 -0.0008463731 -0.011954058 -0.023722954 0.020373067 0.016837394 -0.0060895523 0.008563806 -0.024005536 -0.023428325
문제 0.018061832 -0.0023620187 0.003807992 0.010839812 0.003643777 -0.019239156 0.024303924 0.016102778 -0.008390751 0.018793913 0.0070704874 0.016851932 0.021085566 0.024186444 -0.0028703108 -0.0056238174 -0.015681129 0.014550686 0.017159386 0.018471772
해야 -0.0015939794 0.0034286117 0.008390602 -0.023371158 -0.0061059142 -0.011125645 0.018368738 -0.023412274 0.026459966 0.0018618084 0.0027212473 -0.014752051 -0.004598674 -0.021208735 0.0038657556 -0.01056962 0.02136739 -0.01844768 -0.024971414 -0.01946127
상황 0.019941324 0.0097365705 -0.0043683136 -0.006212393 -0.01663514 0.00836336 0.004932256 0.008583298 0.008309705 0.022473523 0.024156086 0.0101174265 0.0015175302 -0.004628709 0.007834781 0.0077961073 -0.009286563 0.011755005 -0.021731002 -0.005732654
지정 -0.019616043 -0.004222134 0.023546934 -0.0006216424 -0.015568186 -0.00708572 -0.017135033 -0.023985812 -0.008736534 -0.0058462 0.0052233213 -0.017168628 0.0015763241 -0.0050545344 -0.0025080987 0.006574875 -0.015384761 0.0014012813 0.022459237 0.0035172657
되고 0.00066840876 -0.014286446 0.009148189 0.018322919 0.018341083 0.019801537 -0.008098812 0.0032053122 0.024443887 -0.007687521 0.018191155 -0.02679982 -0.017082548 0.01852732 0.0046989047 0.002479714 0.015414154 -0.022803418 -0.009427689 0.016945533
강력한 -0.010105131 -0.027280984 -0.007102181 0.0011121205 -0.0021746163 0.02102034 0.017837193 -0.025480295 -0.003300452 0.012039002 -0.008847964 -0.0048908456 -0.018789656 -0.0048063523 -0.013494448 -0.0140844565 -0.023632746 0.0082419235 0.021347916 -0.0003367754
명령 0.004764257 -0.023886919 0.0055160387 -0.00082539214 0.017447155 0.009329759 0.0015363727 -0.022375207 0.01877887 0.019923368 0.013955698 -0.025660785 0.0069040945 0.013025867 0.012512342 -0.020195695 0.009069615 0.005043239 -0.015035663 -0.0048896815
위험성 0.015782014 0.013432757 -0.007089949 0.013639084 0.016391635 -0.007733615 0.016678384 0.0054715076 -0.0074671274 -0.00074012403 0.030461725 -0.007684092 0.008720983 -0.022124663 0.006885983 -0.016820516 0.0055520707 0.0004702521 0.0076369974 -0.0005931091
증거개시 -0.010817476 -0.027726296 0.0023735075 0.0019653935 0.020504473 -0.0023934096 0.012264175 0.019011406 0.008575149 0.020821106 -0.0025032875 0.009099255 0.02261175 0.0019386291 -0.025585312 0.006396851 -0.008541653 -0.013806037 -0.021333717 0.0032598504
까지 -0.026410315 -0.02654 0.025190411 0.0097362185 0.016888816 0.01854615 0.014933854 0.019343903 0.02469225 0.003627844 0.016428633 -0.002258372 -0.004196817 0.0133706 -0.00026603186 0.017722141 -0.014029111 0.011859859 -0.021361925 0.020645265
때문 0.020915987 -0.0032906064 -0.012462754 0.017931698 0.02427329 0.02306183 0.015142566 -0.017713577 0.0035881586 0.0009534051 -0.014953449 -0.026175724 0.020369496 -0.0030349614 -0.018396014 -0.0038209052 0.0077573755 0.022268878 0.024520786 0.018998766
이라고 0.018052407 -0.009933816 -0.0036574127 -0.00039448787 0.002856978 -0.004197061 -0.0022770003 -0.0031516168 -0.0021602516 0.021343818 0.0019470673 -0.0054228315 0.021776397 0.008349468 -0.02119801 0.009137863 -0.023510601 0.0011557165 0.015880594 4.3240078e-05
TF 0.0027766565 0.015267992 0.008085869 0.024848217 0.023142437 -0.0185606 0.00043217218 -0.0056078145 0.010963715 -0.012030157 -0.015069832 0.01135661 0.0042578517 0.0028183104 -0.024216319 0.00728654 0.012173091 -0.0038506966 0.022253798 -0.020483095
퍼블릭 -0.0013451162 0.013960008 0.025087243 0.022953395 0.005152005 -0.023882138 0.015803996 -0.008040767 0.018667521 0.020632846 0.015445691 -0.019166026 -0.020979322 0.016351586 -0.01935905 0.01472193 -0.023711862 -0.022935577 -0.014449286 0.012952907
도입 -0.015981384 0.014403249 -0.010518246 -0.006590887 0.00899697 -0.0007887092 -0.010719888 -0.0023812253 -0.010006153 0.001488198 0.017444037 -0.025280433 0.020431131 0.008274598 -0.00331388 0.0226299 0.015994525 -0.011937143 -0.016049355 -0.023875557
기밀 -0.00937651 0.017050821 -0.017713025 0.0012233059 -0.016399395 0.013562342 0.025882354 0.00093397836 -0.009780663 -0.018930946 -0.012359056 -0.022857001 0.010847989 0.00833302 -0.022758335 0.013189765 0.0015682738 -0.0034855835 0.02424805 -0.025789179
리튬 -0.00852406 -0.016465506 0.013290935 0.016991261 -0.010004236 -0.024711883 0.024075821 -0.0098802 -0.019170383 0.028416734 0.021082284 -0.020936051 -0.005330573 -0.0015836202 0.01282394 -0.006727588 0.00065660605 -0.004230574 -0.004976919 0.018069576
설계 0.015894525 -0.013413079 0.014515178 0.011226234 0.020697951 0.015594752 -0.016312348 -0.028238075 0.010215094 0.014256507 0.0058925133 -0.021976378 0.023785751 0.0082728285 -0.016181465 -0.013269811 -0.0059152497 0.0049328157 -0.005120931 -0.017964782
공정 -0.0127381105 -0.026872033 -0.0066494555 0.025271716 -0.015229188 0.022578526 -0.01907357 -0.013623209 -0.0029477626 0.008575797 -0.015697038 -0.010216833 0.009093211 0.0024113995 -0.008323204 0.0069623115 0.013967957 0.02461215 -0.016805513 -0.00020814755
단계 -0.02867635 0.00752671 -0.003479379 0.013561786 0.02247633 -0.01871668 -0.0133750755 -0.020713788 -0.022880271 0.0227147 -0.016204048 0.0096647795 0.0084187975 0.015493943 0.0032186508 -0.02221425 -0.021648828 -0.0071508843 0.011909954 -0.019254943
대해 -0.010127589 0.010823773 -0.012065837 -0.010666268 -0.0042424817 -0.021742214 -0.0037893686 0.010709817 0.017108789 -0.015599643 -0.015593329 -0.013590145 0.009626498 0.003342782 -0.013316848 -0.020487953 0.0034604545 -0.011252036 -0.0062130676 -0.009904604
이용 0.014179948 -0.022407321 0.011153941 0.0027982579 -0.0147279 0.0005808579 0.0049476163 -0.013878889 -0.021232218 0.01775043 0.0021063355 0.0017227534 0.0094952285 0.016598415 -0.010509257 0.018023351 0.012549951 -0.021105675 -0.020465782 -0.0019374723
현지 -0.0042177835 0.01572309 0.026129201 -0.014080463 0.0069049876 -0.024665287 0.0019285649 -0.014101585 0.017461238 0.02728257 0.020072166 0.0039340286 -0.022971172 -0.022099191 0.0017034521 0.002614403 -0.0053642355 0.009377303 -0.017499568 -0.005729452
판단 -0.027308531 0.003381207 -0.019424932 -0.01883441 0.019303165 -0.011083175 0.015729744 -0.025488839 -0.012468913 0.017716845 0.028160488 0.020120993 0.0061998065 0.0032984347 -0.0044461996 0.015773844 0.020123668 0.017796608 0.004070876 0.0028719797
놓고 -0.02224148 -0.016724909 0.006675095 0.014988488 0.005841039 -0.02283866 -0.006356869 -0.0026341928 0.022699885 -0.006664382 0.001915042 0.01787651 -0.0047706035 -0.0229395 0.020507576 0.012901705 -0.012628817 0.011198055 0.0025758462 0.013098512
이를 -0.0062892614 -0.019353248 -0.01384798 -0.013195071 -0.014314604 -0.014282553 -0.006217056 -0.0063270885 0.0038245097 0.00357082 -0.0127494 -0.0044842972 0.0067068283 -0.008550714 0.019424161 0.015397288 -0.019157039 0.021903595 0.0066874465 0.0231361
델라웨어 -0.018543249 0.017685166 0.022485686 -0.017675046 -0.014052183 -0.0100899935 -0.011783698 0.0016993345 0.019328887 0.02375711 0.015522549 0.015279224 0.015446415 0.023269445 -0.016917627 -0.0027786095 0.016287865 0.014291472 -0.017155325 0.0063406
지원 0.002063598 -0.00011798018 -0.009381835 0.00056806643 -0.0103704985 -0.00848555 -0.0026242898 0.019223783 -0.019734034 0.009072148 0.0075214547 -0.012895526 -0.004859052 0.01635676 -0.01222218 -0.016131349 0.020225102 -0.00521479 -0.014560148 -0.0135109965
대리인 0.0039747315 -0.025159834 -0.011822178 0.02011575 -0.012682209 -0.024082392 0.0018680616 0.0148634 0.008025036 0.023154182 0.02151814 -0.0011589521 0.017070247 0.0028731541 -0.0037641376 0.026645638 0.02287773 0.019403746 0.019964762 -0.0022554658
거쳐 0.0155310575 0.01164107 0.0052760993 0.023226872 -0.0038832359 0.015458434 -0.0003539096 -0.020879209 0.019466044 -0.016602091 -0.0007820165 0.010892469 0.0027026583 -0.023169223 -0.0027263174 -0.021800702 0.022712247 0.019557657 0.002823113 -0.022619355
경우 -0.009505115 -0.003517763 -0.020782467 -0.0075120665 0.026062503 -0.008932834 0.010215241 0.018006537 0.025149181 0.0049182274 0.014381541 -0.028241968 -0.0076364563 -0.01502839 0.009551485 -0.016215028 0.02092384 -0.0019686506 -0.0048001916 -0.0094468
신고 -0.01426539 0.022954587 0.012494977 0.005174958 0.0038083182 -0.01319225 0.0023189865 0.014225237 0.013724285 -0.0020061696 0.005323706 0.02141663 -0.011873688 0.019839795 0.015381686 0.016062863 0.008166771 -0.004401336 0.019336868 0.013255192
해당 0.010068456 -0.026012829 -0.003039923 0.01198856 0.0011991735 0.00031888095 0.009175013 0.009483465 0.018993434 0.022022463 -0.014477936 -0.02205666 -0.0014970617 -0.010637846 -0.009499824 0.00258398 0.019916859 0.023309773 -0.014234036 -0.018452747
최근 -0.007348854 0.01894617 0.025736347 -0.0139924465 0.006550916 0.000799111 0.009536842 -0.013995192 -0.0038090714 0.00053665484 0.0262123 -0.02638167 0.010876382 0.02164295 -0.011794929 0.025400497 -0.00015702653 -0.016463878 -0.0166259 0.020580772
국가정보원 0.0073062456 -0.02453697 0.007395457 -0.02171455 0.018847285 -0.0002461104 0.025776358 0.00952477 -0.014209492 -0.007746009 0.023016118 -0.009259876 0.011909347 -0.016582958 0.0028162708 0.004142254 0.016701572 -0.008610654 -0.00039107192 -7.7449644e-05
방지 0.018659083 -0.012342336 -0.008837143 -0.010515568 -0.015350589 0.017014358 -0.010292235 0.016268376 0.010097674 -0.0092244195 -0.007002559 0.018818827 0.0012587069 -0.0017533393 0.020032857 -0.0037335525 0.0006313826 0.010624396 -0.007931336 0.019987166
포함 0.009188658 -0.022255097 0.015235389 0.0063031344 0.0058082636 -0.007739873 -0.01113891 -0.0071813012 -0.017107554 -0.017699888 0.013583923 -0.026662705 -0.007263208 -0.021037076 -0.015635269 -0.0023300822 0.019082364 -0.0023552664 0.0005236197 -0.0021403846
증거 -0.014992824 0.018437274 -0.013092043 0.009031988 -0.016129501 0.0018647028 -0.009928655 -0.0063101607 0.007153084 -0.00973899 0.0026907916 -0.027800642 -0.0109472405 0.009345003 -0.01642424 0.007831948 -0.013468973 -0.007971234 0.011115601 -0.0076668416
하지만 -0.0004177574 -0.020565415 0.019807747 -0.00097198 0.027744805 -0.015026448 -0.014738501 -0.004957138 -0.011640328 0.0018827936 -0.018967286 -0.027431468 -0.013261612 0.0133912675 -0.016441097 0.00024403633 0.022395622 -0.002498928 0.007362887 0.011737632
제기 0.006500629 0.020703351 0.027568748 -0.023065684 -0.01529961 0.007811636 -0.014171225 0.015176896 0.0027041433 0.000893832 0.019174276 -0.020524237 0.023262639 0.004068445 -0.019849936 -0.017880265 -0.02462061 0.0145275 -0.000813678 -0.006570168
라며 -0.009220333 -0.02246679 -0.0035248694 -0.018314648 -0.0065879095 -0.018410454 -0.013689316 -0.016664004 0.010769214 0.0068495073 0.017311558 -0.008562811 -0.009782381 -0.015311576 0.0059926207 -0.017404629 -0.008567782 0.016475394 0.009187927 -0.010020554
삼성 -0.025110781 -0.01278856 -0.01496755 -0.0037197643 -0.007267067 -0.011429652 0.009152999 0.011837379 0.020250494 0.019638434 0.01947929 -0.015021692 -0.0023658196 -0.017778464 -0.023105584 -0.016077373 0.0045345505 0.014262173 -0.013634463 -0.0046017957
SDI 0.00928745 0.010960606 0.0032678412 -0.010639549 -0.0076767593 -0.00657369 0.014788889 -0.025728371 0.0006778061 0.027640413 -0.004042191 0.006895855 0.007552543 -0.006845448 0.010973032 -0.01362271 0.023607114 -0.021231372 -0.006428685 -0.013876308
실무 -0.018143268 0.010674433 0.026085565 0.0083676195 0.027444838 0.0004748726 -0.009586112 0.02260971 -0.0016993766 0.0005496585 -0.014933986 -0.014182668 -0.001806935 -0.022061184 0.000720248 -0.019047976 -0.0036562749 0.0034259448 -0.004140082 -0.025926786
이라는 -0.009380163 0.013808276 0.027738545 -0.01471914 0.014309452 -0.010769483 -0.01896856 0.020406451 -0.004183904 0.008004056 -0.0062181675 -0.027274711 0.011738022 -0.007046535 -0.010107618 0.0017165419 -0.0009641669 0.016495433 -0.008318354 -0.007563002
주제 0.01825385 -0.015661396 0.007950929 -0.0014517445 0.014404261 -0.0046818377 0.017047683 -0.019159183 0.010071741 0.016381523 0.025574232 0.010987277 0.0206912 0.00786034 0.00032388867 0.0036544483 0.010198045 0.008774965 -0.01175462 0.013401988
파우치 -0.011122556 0.014478158 0.02412156 -0.00571306 -0.013833166 0.0071206177 0.01660945 -0.016602527 0.025697425 0.0081456145 -0.008899177 -0.0062649283 0.022623416 0.0030238526 0.014267796 -0.00926846 0.012621835 -0.0074718986 -0.010201948 0.018201496
제조 -0.017074157 0.020404804 0.006271444 -0.00037024674 -0.004093316 0.02041204 0.0027850855 -0.020205693 0.020213898 0.023687975 0.01132721 0.017243728 -0.004982731 0.0054962602 -0.0009946942 -0.015974948 -0.016900837 -0.022026103 0.018658387 -0.014632088
평가 -0.013406502 0.016040418 0.026133431 -0.014961272 0.00683972 0.021520806 -0.009496995 -0.003913383 -0.018964462 -0.016959984 0.021137038 0.010587878 0.001504984 -0.0062264833 -0.017462041 0.021275094 -0.013325503 0.021622417 0.009953896 -0.01146075
에서는 -0.0032635063 -0.015997857 0.015743004 0.021906262 0.018384561 0.011707364 0.004549028 0.0015980978 -0.010439371 0.026637822 0.020391062 0.016421543 0.025410725 0.022117108 -0.018301934 0.024209302 -0.0014907857 0.020579211 -0.01592422 -0.007433932
우리 -0.021391474 -0.0037107554 -0.012888663 -0.0011355634 0.02051084 0.002639062 0.0030580123 -0.01851011 -0.0041117826 -0.0081965625 0.011087208 -0.008732728 0.013316218 0.014934408 0.01702716 0.015751032 -0.021193216 -0.0006562867 0.010906836 -0.013465106
사항 -0.010365935 -0.009417185 -0.00909596 0.017985841 -0.0008829344 0.01673781 0.009407457 -0.016411887 -0.0029902398 0.028294105 0.0069952523 -0.024182217 -0.023990097 0.006244593 -0.015008317 -0.010664418 -0.016112784 -0.00886517 -0.012777514 -0.021605855
있도록 -0.018268554 -0.014242825 0.014873366 -0.012756396 0.023568047 -0.02397753 0.0046878434 -0.016888008 0.013419993 -0.016677584 0.0008245847 0.00092239137 -0.021525063 0.021345468 0.0069833715 -0.011049777 -0.00091517664 -0.0046049817 -0.023403639 0.018011399
예정 -0.0075802184 -0.02430674 0.021326693 -0.008834568 0.010085165 0.014572347 0.012953373 0.00875817 -0.01497429 0.012609911 0.02518812 -0.019686759 0.020554285 0.012765249 -0.01702649 -0.011303334 0.014714101 -0.0186196 0.010493042 0.01663364
확보 -0.026281446 -0.0015251571 -0.00233555 -0.0017774723 -0.005968991 0.008579331 -0.005354147 0.019682359 -0.016561884 0.009008853 0.018099139 0.0020678854 -0.010348135 0.0036004882 -0.020651838 0.018140532 -0.012644977 0.022484772 0.010931679 0.005174825
계속 -0.0073568597 -0.00062500505 0.0071499427 -0.0038157676 -0.017639803 -0.024946772 -0.010667455 -0.025015755 0.002988372 0.008932522 -0.018710503 -0.0010549319 -0.017083488 0.008279103 0.0138027975 0.0015032276 0.0059831725 0.0047049928 -0.012286686 -0.015812207
확인 0.010405112 -0.014651863 -0.014285662 0.0022382452 0.029778887 0.014141226 -0.0004981858 -0.024271939 0.021622859 -0.017651962 0.017355524 -0.010814803 0.001049961 -0.01125797 0.01337431 -0.005576807 -0.0157066 0.008818071 0.01252486 0.014381693
만큼 0.014819607 -0.024133725 0.021272838 -0.021548452 0.0123491045 0.019620763 -0.0073845196 -0.023772754 0.003635591 -0.0009368117 0.022733152 -0.0130365295 0.000107378175 0.004677878 -0.006075336 0.014101668 0.00043687658 -0.014253895 -0.019600779 0.0032864714
